<?xml version="1.0"?>
<opencv_storage>
<cascade>
  <stageType>BOOST</stageType>
  <featureType>HAAR</featureType>
  <height>26</height>
  <width>84</width>
  <stageParams>
    <boostType>GAB</boostType>
    <minHitRate>9.9500000476837158e-01</minHitRate>
    <maxFalseAlarm>5.0000000000000000e-01</maxFalseAlarm>
    <weightTrimRate>9.4999998807907104e-01</weightTrimRate>
    <maxDepth>1</maxDepth>
    <maxWeakCount>100</maxWeakCount></stageParams>
  <featureParams>
    <maxCatCount>0</maxCatCount>
    <featSize>1</featSize>
    <mode>BASIC</mode></featureParams>
  <stageNum>3</stageNum>
  <stages>
    <!-- stage 0 -->
    <_>
      <maxWeakCount>2</maxWeakCount>
      <stageThreshold>-2.6928013563156128e-01</stageThreshold>
      <weakClassifiers>
        <_>
          <internalNodes>
            0 -1 7 -9.0915001928806305e-03</internalNodes>
          <leafValues>
            1. -9.8019802570343018e-01</leafValues></_>
        <_>
          <internalNodes>
            0 -1 1 -4.1428818367421627e-03</internalNodes>
          <leafValues>
            7.1091789007186890e-01 -1.</leafValues></_></weakClassifiers></_>
    <!-- stage 1 -->
    <_>
      <maxWeakCount>3</maxWeakCount>
      <stageThreshold>-1.4230749607086182e+00</stageThreshold>
      <weakClassifiers>
        <_>
          <internalNodes>
            0 -1 2 -5.8438205160200596e-03</internalNodes>
          <leafValues>
            6.4705884456634521e-01 -9.7817462682723999e-01</leafValues></_>
        <_>
          <internalNodes>
            0 -1 0 3.0936752445995808e-03</internalNodes>
          <leafValues>
            -9.3734812736511230e-01 6.2525123357772827e-01</leafValues></_>
        <_>
          <internalNodes>
            0 -1 3 2.4788305163383484e-03</internalNodes>
          <leafValues>
            -8.9421725273132324e-01 4.9244782328605652e-01</leafValues></_></weakClassifiers></_>
    <!-- stage 2 -->
    <_>
      <maxWeakCount>3</maxWeakCount>
      <stageThreshold>-1.4523477554321289e+00</stageThreshold>
      <weakClassifiers>
        <_>
          <internalNodes>
            0 -1 6 -8.2870889455080032e-03</internalNodes>
          <leafValues>
            1. -9.7433364391326904e-01</leafValues></_>
        <_>
          <internalNodes>
            0 -1 4 8.5760485380887985e-03</internalNodes>
          <leafValues>
            -9.7132158279418945e-01 3.7618410587310791e-01</leafValues></_>
        <_>
          <internalNodes>
            0 -1 5 -3.5008523613214493e-02</internalNodes>
          <leafValues>
            6.9826948642730713e-01 -8.5419821739196777e-01</leafValues></_></weakClassifiers></_></stages>
  <features>
    <_>
      <rects>
        <_>
          10 7 3 4 -1.</_>
        <_>
          11 7 1 4 3.</_></rects>
      <tilted>0</tilted></_>
    <_>
      <rects>
        <_>
          32 6 3 9 -1.</_>
        <_>
          33 6 1 9 3.</_></rects>
      <tilted>0</tilted></_>
    <_>
      <rects>
        <_>
          36 14 12 2 -1.</_>
        <_>
          36 14 6 1 2.</_>
        <_>
          42 15 6 1 2.</_></rects>
      <tilted>0</tilted></_>
    <_>
      <rects>
        <_>
          39 6 7 2 -1.</_>
        <_>
          39 7 7 1 2.</_></rects>
      <tilted>0</tilted></_>
    <_>
      <rects>
        <_>
          47 8 6 7 -1.</_>
        <_>
          49 8 2 7 3.</_></rects>
      <tilted>0</tilted></_>
    <_>
      <rects>
        <_>
          51 12 26 14 -1.</_>
        <_>
          51 12 13 7 2.</_>
        <_>
          64 19 13 7 2.</_></rects>
      <tilted>0</tilted></_>
    <_>
      <rects>
        <_>
          64 10 3 9 -1.</_>
        <_>
          65 10 1 9 3.</_></rects>
      <tilted>0</tilted></_>
    <_>
      <rects>
        <_>
          71 9 3 10 -1.</_>
        <_>
          72 9 1 10 3.</_></rects>
      <tilted>0</tilted></_></features></cascade>
</opencv_storage>
