<?xml version="1.0"?>
<opencv_storage>
<cascade>
  <stageType>BOOST</stageType>
  <featureType>HAAR</featureType>
  <height>14</height>
  <width>35</width>
  <stageParams>
    <boostType>GAB</boostType>
    <minHitRate>9.9500000476837158e-01</minHitRate>
    <maxFalseAlarm>5.0000000000000000e-01</maxFalseAlarm>
    <weightTrimRate>9.4999998807907104e-01</weightTrimRate>
    <maxDepth>1</maxDepth>
    <maxWeakCount>100</maxWeakCount></stageParams>
  <featureParams>
    <maxCatCount>0</maxCatCount>
    <featSize>1</featSize>
    <mode>BASIC</mode></featureParams>
  <stageNum>16</stageNum>
  <stages>
    <!-- stage 0 -->
    <_>
      <maxWeakCount>4</maxWeakCount>
      <stageThreshold>-1.7758750915527344e+00</stageThreshold>
      <weakClassifiers>
        <_>
          <internalNodes>
            0 -1 25 -2.9190026223659515e-02</internalNodes>
          <leafValues>
            8.7142854928970337e-01 -9.1682785749435425e-01</leafValues></_>
        <_>
          <internalNodes>
            0 -1 18 -2.4194724857807159e-02</internalNodes>
          <leafValues>
            6.7091679573059082e-01 -8.5569864511489868e-01</leafValues></_>
        <_>
          <internalNodes>
            0 -1 31 1.8722645938396454e-02</internalNodes>
          <leafValues>
            -6.7115384340286255e-01 8.9241969585418701e-01</leafValues></_>
        <_>
          <internalNodes>
            0 -1 49 -4.6259369701147079e-02</internalNodes>
          <leafValues>
            6.6780525445938110e-01 -7.7391892671585083e-01</leafValues></_></weakClassifiers></_>
    <!-- stage 1 -->
    <_>
      <maxWeakCount>4</maxWeakCount>
      <stageThreshold>-1.9060672521591187e+00</stageThreshold>
      <weakClassifiers>
        <_>
          <internalNodes>
            0 -1 50 -8.0644503235816956e-02</internalNodes>
          <leafValues>
            6.1212122440338135e-01 -9.1873139142990112e-01</leafValues></_>
        <_>
          <internalNodes>
            0 -1 70 -1.1648525483906269e-02</internalNodes>
          <leafValues>
            4.4461035728454590e-01 -8.4943258762359619e-01</leafValues></_>
        <_>
          <internalNodes>
            0 -1 38 1.2150529772043228e-02</internalNodes>
          <leafValues>
            -7.2614866495132446e-01 6.6392612457275391e-01</leafValues></_>
        <_>
          <internalNodes>
            0 -1 10 -1.3195557519793510e-02</internalNodes>
          <leafValues>
            6.4378750324249268e-01 -7.0579755306243896e-01</leafValues></_></weakClassifiers></_>
    <!-- stage 2 -->
    <_>
      <maxWeakCount>4</maxWeakCount>
      <stageThreshold>-1.5638854503631592e+00</stageThreshold>
      <weakClassifiers>
        <_>
          <internalNodes>
            0 -1 43 -1.6977038234472275e-02</internalNodes>
          <leafValues>
            5.6578946113586426e-01 -8.9236789941787720e-01</leafValues></_>
        <_>
          <internalNodes>
            0 -1 62 -1.9940391648560762e-03</internalNodes>
          <leafValues>
            8.5886448621749878e-01 -6.8537080287933350e-01</leafValues></_>
        <_>
          <internalNodes>
            0 -1 56 -1.2016117107123137e-03</internalNodes>
          <leafValues>
            8.7065100669860840e-01 -5.2778452634811401e-01</leafValues></_>
        <_>
          <internalNodes>
            0 -1 58 2.2901788353919983e-02</internalNodes>
          <leafValues>
            -8.5387223958969116e-01 5.4163777828216553e-01</leafValues></_></weakClassifiers></_>
    <!-- stage 3 -->
    <_>
      <maxWeakCount>4</maxWeakCount>
      <stageThreshold>-1.6706767082214355e+00</stageThreshold>
      <weakClassifiers>
        <_>
          <internalNodes>
            0 -1 5 -5.2432771772146225e-02</internalNodes>
          <leafValues>
            7.7981650829315186e-01 -8.5539907217025757e-01</leafValues></_>
        <_>
          <internalNodes>
            0 -1 28 -3.1811431050300598e-02</internalNodes>
          <leafValues>
            9.2741894721984863e-01 -5.9357410669326782e-01</leafValues></_>
        <_>
          <internalNodes>
            0 -1 91 1.8727933987975121e-02</internalNodes>
          <leafValues>
            -7.8702276945114136e-01 5.4063647985458374e-01</leafValues></_>
        <_>
          <internalNodes>
            0 -1 26 -1.6747962217777967e-03</internalNodes>
          <leafValues>
            5.6531929969787598e-01 -6.8707108497619629e-01</leafValues></_></weakClassifiers></_>
    <!-- stage 4 -->
    <_>
      <maxWeakCount>5</maxWeakCount>
      <stageThreshold>-1.8751916885375977e+00</stageThreshold>
      <weakClassifiers>
        <_>
          <internalNodes>
            0 -1 14 -4.9994029104709625e-02</internalNodes>
          <leafValues>
            7.0297032594680786e-01 -8.3597391843795776e-01</leafValues></_>
        <_>
          <internalNodes>
            0 -1 24 -8.0867789685726166e-02</internalNodes>
          <leafValues>
            4.6834692358970642e-01 -7.9247564077377319e-01</leafValues></_>
        <_>
          <internalNodes>
            0 -1 76 1.1087218299508095e-02</internalNodes>
          <leafValues>
            -5.2034527063369751e-01 6.9743973016738892e-01</leafValues></_>
        <_>
          <internalNodes>
            0 -1 21 1.8729271832853556e-03</internalNodes>
          <leafValues>
            -4.4681903719902039e-01 7.1736335754394531e-01</leafValues></_>
        <_>
          <internalNodes>
            0 -1 83 6.1444789171218872e-03</internalNodes>
          <leafValues>
            -3.8200446963310242e-01 7.2042208909988403e-01</leafValues></_></weakClassifiers></_>
    <!-- stage 5 -->
    <_>
      <maxWeakCount>6</maxWeakCount>
      <stageThreshold>-2.2941331863403320e+00</stageThreshold>
      <weakClassifiers>
        <_>
          <internalNodes>
            0 -1 87 1.9570250064134598e-02</internalNodes>
          <leafValues>
            -8.2681566476821899e-01 6.2000000476837158e-01</leafValues></_>
        <_>
          <internalNodes>
            0 -1 65 9.0186186134815216e-03</internalNodes>
          <leafValues>
            -5.8312243223190308e-01 7.4161380529403687e-01</leafValues></_>
        <_>
          <internalNodes>
            0 -1 37 1.8683977425098419e-02</internalNodes>
          <leafValues>
            -6.6334998607635498e-01 4.9017003178596497e-01</leafValues></_>
        <_>
          <internalNodes>
            0 -1 17 -3.0277578160166740e-02</internalNodes>
          <leafValues>
            4.8603126406669617e-01 -6.1276268959045410e-01</leafValues></_>
        <_>
          <internalNodes>
            0 -1 73 2.4160353932529688e-03</internalNodes>
          <leafValues>
            -4.0219011902809143e-01 7.6063871383666992e-01</leafValues></_>
        <_>
          <internalNodes>
            0 -1 1 -3.0176645144820213e-02</internalNodes>
          <leafValues>
            7.8614282608032227e-01 -3.6872118711471558e-01</leafValues></_></weakClassifiers></_>
    <!-- stage 6 -->
    <_>
      <maxWeakCount>5</maxWeakCount>
      <stageThreshold>-1.7087569236755371e+00</stageThreshold>
      <weakClassifiers>
        <_>
          <internalNodes>
            0 -1 35 -2.8579968959093094e-02</internalNodes>
          <leafValues>
            3.7588652968406677e-01 -8.5091966390609741e-01</leafValues></_>
        <_>
          <internalNodes>
            0 -1 19 -9.0417638421058655e-02</internalNodes>
          <leafValues>
            2.2269341349601746e-01 -8.3591753244400024e-01</leafValues></_>
        <_>
          <internalNodes>
            0 -1 79 2.6492327451705933e-02</internalNodes>
          <leafValues>
            -6.8240743875503540e-01 3.5790082812309265e-01</leafValues></_>
        <_>
          <internalNodes>
            0 -1 2 -8.0200713127851486e-03</internalNodes>
          <leafValues>
            5.3416591882705688e-01 -4.6574223041534424e-01</leafValues></_>
        <_>
          <internalNodes>
            0 -1 48 -6.5418658778071404e-03</internalNodes>
          <leafValues>
            2.9510286450386047e-01 -9.1398650407791138e-01</leafValues></_></weakClassifiers></_>
    <!-- stage 7 -->
    <_>
      <maxWeakCount>8</maxWeakCount>
      <stageThreshold>-1.3564246892929077e+00</stageThreshold>
      <weakClassifiers>
        <_>
          <internalNodes>
            0 -1 95 -1.2412121519446373e-02</internalNodes>
          <leafValues>
            7.7777779102325439e-01 -7.8757876157760620e-01</leafValues></_>
        <_>
          <internalNodes>
            0 -1 82 -9.2204641550779343e-03</internalNodes>
          <leafValues>
            4.0422800183296204e-01 -5.9419023990631104e-01</leafValues></_>
        <_>
          <internalNodes>
            0 -1 6 -6.2395110726356506e-03</internalNodes>
          <leafValues>
            3.3330163359642029e-01 -6.2080174684524536e-01</leafValues></_>
        <_>
          <internalNodes>
            0 -1 69 -5.8655999600887299e-03</internalNodes>
          <leafValues>
            3.2254576683044434e-01 -7.1121448278427124e-01</leafValues></_>
        <_>
          <internalNodes>
            0 -1 39 2.6059061288833618e-02</internalNodes>
          <leafValues>
            -4.5783609151840210e-01 5.3138005733489990e-01</leafValues></_>
        <_>
          <internalNodes>
            0 -1 80 2.0194098353385925e-02</internalNodes>
          <leafValues>
            -5.6752997636795044e-01 4.4424501061439514e-01</leafValues></_>
        <_>
          <internalNodes>
            0 -1 55 -1.1993775144219398e-02</internalNodes>
          <leafValues>
            8.2899224758148193e-01 -2.6091441512107849e-01</leafValues></_>
        <_>
          <internalNodes>
            0 -1 92 -7.2068320587277412e-03</internalNodes>
          <leafValues>
            7.0032149553298950e-01 -2.9143932461738586e-01</leafValues></_></weakClassifiers></_>
    <!-- stage 8 -->
    <_>
      <maxWeakCount>8</maxWeakCount>
      <stageThreshold>-2.1804039478302002e+00</stageThreshold>
      <weakClassifiers>
        <_>
          <internalNodes>
            0 -1 72 -5.6130997836589813e-02</internalNodes>
          <leafValues>
            6.9999998807907104e-01 -7.7917414903640747e-01</leafValues></_>
        <_>
          <internalNodes>
            0 -1 8 9.8493054509162903e-02</internalNodes>
          <leafValues>
            -7.5007343292236328e-01 2.3094235360622406e-01</leafValues></_>
        <_>
          <internalNodes>
            0 -1 12 -5.3476560860872269e-03</internalNodes>
          <leafValues>
            4.5778250694274902e-01 -4.5018318295478821e-01</leafValues></_>
        <_>
          <internalNodes>
            0 -1 61 -2.9358538449741900e-04</internalNodes>
          <leafValues>
            3.2547333836555481e-01 -7.0425873994827271e-01</leafValues></_>
        <_>
          <internalNodes>
            0 -1 96 4.6731596812605858e-03</internalNodes>
          <leafValues>
            -3.2753908634185791e-01 6.0980707406997681e-01</leafValues></_>
        <_>
          <internalNodes>
            0 -1 33 -1.1530106887221336e-02</internalNodes>
          <leafValues>
            4.0797337889671326e-01 -4.9011546373367310e-01</leafValues></_>
        <_>
          <internalNodes>
            0 -1 77 -3.7479624152183533e-03</internalNodes>
          <leafValues>
            5.5996400117874146e-01 -3.3950641751289368e-01</leafValues></_>
        <_>
          <internalNodes>
            0 -1 68 9.0810451656579971e-03</internalNodes>
          <leafValues>
            -2.7725121378898621e-01 7.3341459035873413e-01</leafValues></_></weakClassifiers></_>
    <!-- stage 9 -->
    <_>
      <maxWeakCount>8</maxWeakCount>
      <stageThreshold>-1.5354304313659668e+00</stageThreshold>
      <weakClassifiers>
        <_>
          <internalNodes>
            0 -1 89 -5.1218438893556595e-02</internalNodes>
          <leafValues>
            8.3870969712734222e-02 -8.2335621118545532e-01</leafValues></_>
        <_>
          <internalNodes>
            0 -1 22 -1.5989657491445541e-02</internalNodes>
          <leafValues>
            2.0364925265312195e-01 -6.2923955917358398e-01</leafValues></_>
        <_>
          <internalNodes>
            0 -1 15 6.7145470529794693e-03</internalNodes>
          <leafValues>
            -2.8651261329650879e-01 7.2965115308761597e-01</leafValues></_>
        <_>
          <internalNodes>
            0 -1 30 -1.2193370610475540e-02</internalNodes>
          <leafValues>
            3.2528007030487061e-01 -6.4945840835571289e-01</leafValues></_>
        <_>
          <internalNodes>
            0 -1 44 3.7724594585597515e-03</internalNodes>
          <leafValues>
            2.1879474818706512e-01 -9.0978765487670898e-01</leafValues></_>
        <_>
          <internalNodes>
            0 -1 52 1.4974031597375870e-02</internalNodes>
          <leafValues>
            -4.0183910727500916e-01 4.9841353297233582e-01</leafValues></_>
        <_>
          <internalNodes>
            0 -1 45 1.3016985729336739e-02</internalNodes>
          <leafValues>
            -3.9410138130187988e-01 5.5412530899047852e-01</leafValues></_>
        <_>
          <internalNodes>
            0 -1 47 8.8033555075526237e-03</internalNodes>
          <leafValues>
            -2.8343898057937622e-01 5.9739333391189575e-01</leafValues></_></weakClassifiers></_>
    <!-- stage 10 -->
    <_>
      <maxWeakCount>8</maxWeakCount>
      <stageThreshold>-1.7237513065338135e+00</stageThreshold>
      <weakClassifiers>
        <_>
          <internalNodes>
            0 -1 34 3.0917830765247345e-02</internalNodes>
          <leafValues>
            -8.1620556116104126e-01 -4.2428446119506890e-17</leafValues></_>
        <_>
          <internalNodes>
            0 -1 41 -4.3519392609596252e-02</internalNodes>
          <leafValues>
            4.6040388941764832e-01 -5.0752103328704834e-01</leafValues></_>
        <_>
          <internalNodes>
            0 -1 64 1.1408437974750996e-02</internalNodes>
          <leafValues>
            -6.2980425357818604e-01 2.7761077880859375e-01</leafValues></_>
        <_>
          <internalNodes>
            0 -1 66 -5.5337265133857727e-02</internalNodes>
          <leafValues>
            3.6658602952957153e-01 -5.1703643798828125e-01</leafValues></_>
        <_>
          <internalNodes>
            0 -1 40 1.1189443990588188e-02</internalNodes>
          <leafValues>
            -3.2173094153404236e-01 5.7431471347808838e-01</leafValues></_>
        <_>
          <internalNodes>
            0 -1 27 3.0574542470276356e-03</internalNodes>
          <leafValues>
            2.0985895395278931e-01 -7.8969532251358032e-01</leafValues></_>
        <_>
          <internalNodes>
            0 -1 97 -2.3014707490801811e-02</internalNodes>
          <leafValues>
            7.1843361854553223e-01 -2.3096898198127747e-01</leafValues></_>
        <_>
          <internalNodes>
            0 -1 59 -2.0808102563023567e-03</internalNodes>
          <leafValues>
            -8.9044147729873657e-01 2.0603445172309875e-01</leafValues></_></weakClassifiers></_>
    <!-- stage 11 -->
    <_>
      <maxWeakCount>7</maxWeakCount>
      <stageThreshold>-1.6957713365554810e+00</stageThreshold>
      <weakClassifiers>
        <_>
          <internalNodes>
            0 -1 90 -1.7633073031902313e-02</internalNodes>
          <leafValues>
            2.8421053290367126e-01 -7.9054677486419678e-01</leafValues></_>
        <_>
          <internalNodes>
            0 -1 85 1.7609344795346260e-02</internalNodes>
          <leafValues>
            -4.4944146275520325e-01 6.4848959445953369e-01</leafValues></_>
        <_>
          <internalNodes>
            0 -1 20 6.8599302321672440e-03</internalNodes>
          <leafValues>
            -5.5610674619674683e-01 3.4572815895080566e-01</leafValues></_>
        <_>
          <internalNodes>
            0 -1 98 -4.1940649971365929e-03</internalNodes>
          <leafValues>
            6.0417163372039795e-01 -3.0693790316581726e-01</leafValues></_>
        <_>
          <internalNodes>
            0 -1 71 5.5752638727426529e-03</internalNodes>
          <leafValues>
            -3.9962339401245117e-01 4.1710847616195679e-01</leafValues></_>
        <_>
          <internalNodes>
            0 -1 99 -1.1203791946172714e-02</internalNodes>
          <leafValues>
            6.9562745094299316e-01 -2.3653510212898254e-01</leafValues></_>
        <_>
          <internalNodes>
            0 -1 88 -3.6765018012374640e-04</internalNodes>
          <leafValues>
            2.7844882011413574e-01 -7.9985189437866211e-01</leafValues></_></weakClassifiers></_>
    <!-- stage 12 -->
    <_>
      <maxWeakCount>10</maxWeakCount>
      <stageThreshold>-2.2584209442138672e+00</stageThreshold>
      <weakClassifiers>
        <_>
          <internalNodes>
            0 -1 94 -1.9473288208246231e-02</internalNodes>
          <leafValues>
            2.7472528815269470e-01 -7.8578025102615356e-01</leafValues></_>
        <_>
          <internalNodes>
            0 -1 93 1.8379773944616318e-02</internalNodes>
          <leafValues>
            -4.2667415738105774e-01 6.3974118232727051e-01</leafValues></_>
        <_>
          <internalNodes>
            0 -1 11 1.0265724733471870e-02</internalNodes>
          <leafValues>
            -7.1832054853439331e-01 2.4107730388641357e-01</leafValues></_>
        <_>
          <internalNodes>
            0 -1 23 1.0456786490976810e-02</internalNodes>
          <leafValues>
            -2.7298343181610107e-01 6.2699615955352783e-01</leafValues></_>
        <_>
          <internalNodes>
            0 -1 63 1.1330584064126015e-02</internalNodes>
          <leafValues>
            -5.8171963691711426e-01 2.7364701032638550e-01</leafValues></_>
        <_>
          <internalNodes>
            0 -1 74 1.2336069718003273e-02</internalNodes>
          <leafValues>
            -2.4131828546524048e-01 6.7834043502807617e-01</leafValues></_>
        <_>
          <internalNodes>
            0 -1 3 -2.6846462860703468e-03</internalNodes>
          <leafValues>
            -7.3484683036804199e-01 2.4035955965518951e-01</leafValues></_>
        <_>
          <internalNodes>
            0 -1 4 -1.4313245192170143e-03</internalNodes>
          <leafValues>
            2.3363387584686279e-01 -6.8470215797424316e-01</leafValues></_>
        <_>
          <internalNodes>
            0 -1 16 -4.3203132227063179e-03</internalNodes>
          <leafValues>
            3.6169368028640747e-01 -4.3635174632072449e-01</leafValues></_>
        <_>
          <internalNodes>
            0 -1 13 1.4339303597807884e-02</internalNodes>
          <leafValues>
            -2.2866410017013550e-01 7.4378830194473267e-01</leafValues></_></weakClassifiers></_>
    <!-- stage 13 -->
    <_>
      <maxWeakCount>7</maxWeakCount>
      <stageThreshold>-1.5322465896606445e+00</stageThreshold>
      <weakClassifiers>
        <_>
          <internalNodes>
            0 -1 36 -6.6190764307975769e-02</internalNodes>
          <leafValues>
            3.9726027846336365e-01 -7.7656674385070801e-01</leafValues></_>
        <_>
          <internalNodes>
            0 -1 65 1.2997525744140148e-02</internalNodes>
          <leafValues>
            -4.4717299938201904e-01 4.9574416875839233e-01</leafValues></_>
        <_>
          <internalNodes>
            0 -1 67 2.7430051937699318e-02</internalNodes>
          <leafValues>
            -2.3225575685501099e-01 7.7031260728836060e-01</leafValues></_>
        <_>
          <internalNodes>
            0 -1 84 2.1932214498519897e-02</internalNodes>
          <leafValues>
            -5.0343364477157593e-01 3.6354869604110718e-01</leafValues></_>
        <_>
          <internalNodes>
            0 -1 7 -6.9193325936794281e-02</internalNodes>
          <leafValues>
            6.8308550119400024e-01 -2.6366922259330750e-01</leafValues></_>
        <_>
          <internalNodes>
            0 -1 60 9.4145827461034060e-04</internalNodes>
          <leafValues>
            2.3531810939311981e-01 -7.6939713954925537e-01</leafValues></_>
        <_>
          <internalNodes>
            0 -1 0 2.8477583080530167e-02</internalNodes>
          <leafValues>
            -3.5554534196853638e-01 4.5768058300018311e-01</leafValues></_></weakClassifiers></_>
    <!-- stage 14 -->
    <_>
      <maxWeakCount>6</maxWeakCount>
      <stageThreshold>-1.2680737972259521e+00</stageThreshold>
      <weakClassifiers>
        <_>
          <internalNodes>
            0 -1 81 -7.6655615121126175e-03</internalNodes>
          <leafValues>
            6.5693430602550507e-02 -8.0520731210708618e-01</leafValues></_>
        <_>
          <internalNodes>
            0 -1 75 -1.8699795007705688e-02</internalNodes>
          <leafValues>
            3.2881784439086914e-01 -5.0707447528839111e-01</leafValues></_>
        <_>
          <internalNodes>
            0 -1 54 5.2713090553879738e-03</internalNodes>
          <leafValues>
            -2.6442876458168030e-01 6.3542085886001587e-01</leafValues></_>
        <_>
          <internalNodes>
            0 -1 57 -6.3470685854554176e-03</internalNodes>
          <leafValues>
            5.5891442298889160e-01 -2.6948121190071106e-01</leafValues></_>
        <_>
          <internalNodes>
            0 -1 32 1.2369522592052817e-03</internalNodes>
          <leafValues>
            1.7386497557163239e-01 -8.5087960958480835e-01</leafValues></_>
        <_>
          <internalNodes>
            0 -1 62 -2.2926330566406250e-03</internalNodes>
          <leafValues>
            5.0690144300460815e-01 -2.7029877901077271e-01</leafValues></_></weakClassifiers></_>
    <!-- stage 15 -->
    <_>
      <maxWeakCount>8</maxWeakCount>
      <stageThreshold>-1.4349198341369629e+00</stageThreshold>
      <weakClassifiers>
        <_>
          <internalNodes>
            0 -1 78 -5.2102529443800449e-03</internalNodes>
          <leafValues>
            2.8947368264198303e-01 -7.7231329679489136e-01</leafValues></_>
        <_>
          <internalNodes>
            0 -1 46 1.2835800647735596e-02</internalNodes>
          <leafValues>
            -6.7940086126327515e-01 9.8927631974220276e-02</leafValues></_>
        <_>
          <internalNodes>
            0 -1 51 3.1457506120204926e-02</internalNodes>
          <leafValues>
            -3.5304865241050720e-01 5.3180134296417236e-01</leafValues></_>
        <_>
          <internalNodes>
            0 -1 42 -1.5436319634318352e-02</internalNodes>
          <leafValues>
            5.8011442422866821e-01 -2.8293818235397339e-01</leafValues></_>
        <_>
          <internalNodes>
            0 -1 53 5.3487204015254974e-02</internalNodes>
          <leafValues>
            -5.0865507125854492e-01 2.8148761391639709e-01</leafValues></_>
        <_>
          <internalNodes>
            0 -1 86 -7.4428888037800789e-03</internalNodes>
          <leafValues>
            5.4964542388916016e-01 -2.4407091736793518e-01</leafValues></_>
        <_>
          <internalNodes>
            0 -1 9 -2.0513054914772511e-04</internalNodes>
          <leafValues>
            2.5339320302009583e-01 -6.8832314014434814e-01</leafValues></_>
        <_>
          <internalNodes>
            0 -1 29 -1.1160789057612419e-02</internalNodes>
          <leafValues>
            6.0294288396835327e-01 -2.6835715770721436e-01</leafValues></_></weakClassifiers></_></stages>
  <features>
    <_>
      <rects>
        <_>
          0 0 6 8 -1.</_>
        <_>
          2 0 2 8 3.</_></rects>
      <tilted>0</tilted></_>
    <_>
      <rects>
        <_>
          0 0 24 3 -1.</_>
        <_>
          0 1 24 1 3.</_></rects>
      <tilted>0</tilted></_>
    <_>
      <rects>
        <_>
          0 2 2 12 -1.</_>
        <_>
          0 2 1 6 2.</_>
        <_>
          1 8 1 6 2.</_></rects>
      <tilted>0</tilted></_>
    <_>
      <rects>
        <_>
          0 6 1 4 -1.</_>
        <_>
          0 8 1 2 2.</_></rects>
      <tilted>0</tilted></_>
    <_>
      <rects>
        <_>
          0 6 5 4 -1.</_>
        <_>
          0 8 5 2 2.</_></rects>
      <tilted>0</tilted></_>
    <_>
      <rects>
        <_>
          0 6 34 2 -1.</_>
        <_>
          0 7 34 1 2.</_></rects>
      <tilted>0</tilted></_>
    <_>
      <rects>
        <_>
          1 0 6 6 -1.</_>
        <_>
          1 0 3 3 2.</_>
        <_>
          4 3 3 3 2.</_></rects>
      <tilted>0</tilted></_>
    <_>
      <rects>
        <_>
          1 0 31 3 -1.</_>
        <_>
          1 1 31 1 3.</_></rects>
      <tilted>0</tilted></_>
    <_>
      <rects>
        <_>
          1 1 18 9 -1.</_>
        <_>
          1 4 18 3 3.</_></rects>
      <tilted>0</tilted></_>
    <_>
      <rects>
        <_>
          1 4 2 4 -1.</_>
        <_>
          1 6 2 2 2.</_></rects>
      <tilted>0</tilted></_>
    <_>
      <rects>
        <_>
          1 4 3 6 -1.</_>
        <_>
          1 7 3 3 2.</_></rects>
      <tilted>0</tilted></_>
    <_>
      <rects>
        <_>
          1 5 24 2 -1.</_>
        <_>
          9 5 8 2 3.</_></rects>
      <tilted>0</tilted></_>
    <_>
      <rects>
        <_>
          2 0 2 6 -1.</_>
        <_>
          3 0 1 6 2.</_></rects>
      <tilted>0</tilted></_>
    <_>
      <rects>
        <_>
          2 0 9 2 -1.</_>
        <_>
          2 1 9 1 2.</_></rects>
      <tilted>0</tilted></_>
    <_>
      <rects>
        <_>
          2 0 30 3 -1.</_>
        <_>
          2 1 30 1 3.</_></rects>
      <tilted>0</tilted></_>
    <_>
      <rects>
        <_>
          2 1 2 3 -1.</_>
        <_>
          2 2 2 1 3.</_></rects>
      <tilted>0</tilted></_>
    <_>
      <rects>
        <_>
          2 2 2 7 -1.</_>
        <_>
          3 2 1 7 2.</_></rects>
      <tilted>0</tilted></_>
    <_>
      <rects>
        <_>
          2 2 9 5 -1.</_>
        <_>
          5 2 3 5 3.</_></rects>
      <tilted>0</tilted></_>
    <_>
      <rects>
        <_>
          2 2 9 7 -1.</_>
        <_>
          5 2 3 7 3.</_></rects>
      <tilted>0</tilted></_>
    <_>
      <rects>
        <_>
          2 2 17 10 -1.</_>
        <_>
          2 7 17 5 2.</_></rects>
      <tilted>0</tilted></_>
    <_>
      <rects>
        <_>
          2 4 4 6 -1.</_>
        <_>
          2 4 2 3 2.</_>
        <_>
          4 7 2 3 2.</_></rects>
      <tilted>0</tilted></_>
    <_>
      <rects>
        <_>
          2 5 2 4 -1.</_>
        <_>
          2 5 1 2 2.</_>
        <_>
          3 7 1 2 2.</_></rects>
      <tilted>0</tilted></_>
    <_>
      <rects>
        <_>
          2 5 2 9 -1.</_>
        <_>
          2 8 2 3 3.</_></rects>
      <tilted>0</tilted></_>
    <_>
      <rects>
        <_>
          2 5 3 3 -1.</_>
        <_>
          2 6 3 1 3.</_></rects>
      <tilted>0</tilted></_>
    <_>
      <rects>
        <_>
          2 5 32 6 -1.</_>
        <_>
          2 7 32 2 3.</_></rects>
      <tilted>0</tilted></_>
    <_>
      <rects>
        <_>
          2 6 31 2 -1.</_>
        <_>
          2 7 31 1 2.</_></rects>
      <tilted>0</tilted></_>
    <_>
      <rects>
        <_>
          3 5 2 3 -1.</_>
        <_>
          4 5 1 3 2.</_></rects>
      <tilted>0</tilted></_>
    <_>
      <rects>
        <_>
          3 11 9 1 -1.</_>
        <_>
          6 11 3 1 3.</_></rects>
      <tilted>0</tilted></_>
    <_>
      <rects>
        <_>
          3 11 32 3 -1.</_>
        <_>
          3 12 32 1 3.</_></rects>
      <tilted>0</tilted></_>
    <_>
      <rects>
        <_>
          4 0 8 2 -1.</_>
        <_>
          4 1 8 1 2.</_></rects>
      <tilted>0</tilted></_>
    <_>
      <rects>
        <_>
          4 4 10 10 -1.</_>
        <_>
          4 4 5 5 2.</_>
        <_>
          9 9 5 5 2.</_></rects>
      <tilted>0</tilted></_>
    <_>
      <rects>
        <_>
          5 1 26 3 -1.</_>
        <_>
          5 2 26 1 3.</_></rects>
      <tilted>0</tilted></_>
    <_>
      <rects>
        <_>
          5 3 3 1 -1.</_>
        <_>
          6 3 1 1 3.</_></rects>
      <tilted>0</tilted></_>
    <_>
      <rects>
        <_>
          6 10 20 4 -1.</_>
        <_>
          6 10 10 2 2.</_>
        <_>
          16 12 10 2 2.</_></rects>
      <tilted>0</tilted></_>
    <_>
      <rects>
        <_>
          7 2 6 5 -1.</_>
        <_>
          9 2 2 5 3.</_></rects>
      <tilted>0</tilted></_>
    <_>
      <rects>
        <_>
          8 6 12 2 -1.</_>
        <_>
          8 7 12 1 2.</_></rects>
      <tilted>0</tilted></_>
    <_>
      <rects>
        <_>
          8 11 24 3 -1.</_>
        <_>
          8 12 24 1 3.</_></rects>
      <tilted>0</tilted></_>
    <_>
      <rects>
        <_>
          9 0 11 4 -1.</_>
        <_>
          9 2 11 2 2.</_></rects>
      <tilted>0</tilted></_>
    <_>
      <rects>
        <_>
          9 1 20 2 -1.</_>
        <_>
          9 2 20 1 2.</_></rects>
      <tilted>0</tilted></_>
    <_>
      <rects>
        <_>
          9 1 26 2 -1.</_>
        <_>
          9 2 26 1 2.</_></rects>
      <tilted>0</tilted></_>
    <_>
      <rects>
        <_>
          10 1 6 3 -1.</_>
        <_>
          10 2 6 1 3.</_></rects>
      <tilted>0</tilted></_>
    <_>
      <rects>
        <_>
          10 6 23 3 -1.</_>
        <_>
          10 7 23 1 3.</_></rects>
      <tilted>0</tilted></_>
    <_>
      <rects>
        <_>
          10 11 12 3 -1.</_>
        <_>
          10 12 12 1 3.</_></rects>
      <tilted>0</tilted></_>
    <_>
      <rects>
        <_>
          11 6 10 3 -1.</_>
        <_>
          11 7 10 1 3.</_></rects>
      <tilted>0</tilted></_>
    <_>
      <rects>
        <_>
          11 8 6 2 -1.</_>
        <_>
          13 8 2 2 3.</_></rects>
      <tilted>0</tilted></_>
    <_>
      <rects>
        <_>
          11 8 22 3 -1.</_>
        <_>
          11 9 22 1 3.</_></rects>
      <tilted>0</tilted></_>
    <_>
      <rects>
        <_>
          11 9 14 2 -1.</_>
        <_>
          18 9 7 2 2.</_></rects>
      <tilted>0</tilted></_>
    <_>
      <rects>
        <_>
          12 3 3 4 -1.</_>
        <_>
          13 3 1 4 3.</_></rects>
      <tilted>0</tilted></_>
    <_>
      <rects>
        <_>
          12 3 2 10 -1.</_>
        <_>
          12 8 2 5 2.</_></rects>
      <tilted>0</tilted></_>
    <_>
      <rects>
        <_>
          12 3 8 8 -1.</_>
        <_>
          12 7 8 4 2.</_></rects>
      <tilted>0</tilted></_>
    <_>
      <rects>
        <_>
          12 5 21 6 -1.</_>
        <_>
          12 7 21 2 3.</_></rects>
      <tilted>0</tilted></_>
    <_>
      <rects>
        <_>
          12 5 22 3 -1.</_>
        <_>
          12 6 22 1 3.</_></rects>
      <tilted>0</tilted></_>
    <_>
      <rects>
        <_>
          12 9 22 3 -1.</_>
        <_>
          12 10 22 1 3.</_></rects>
      <tilted>0</tilted></_>
    <_>
      <rects>
        <_>
          13 0 8 9 -1.</_>
        <_>
          13 3 8 3 3.</_></rects>
      <tilted>0</tilted></_>
    <_>
      <rects>
        <_>
          13 2 3 3 -1.</_>
        <_>
          14 2 1 3 3.</_></rects>
      <tilted>0</tilted></_>
    <_>
      <rects>
        <_>
          13 2 3 5 -1.</_>
        <_>
          14 2 1 5 3.</_></rects>
      <tilted>0</tilted></_>
    <_>
      <rects>
        <_>
          13 4 3 1 -1.</_>
        <_>
          14 4 1 1 3.</_></rects>
      <tilted>0</tilted></_>
    <_>
      <rects>
        <_>
          13 4 3 2 -1.</_>
        <_>
          14 4 1 2 3.</_></rects>
      <tilted>0</tilted></_>
    <_>
      <rects>
        <_>
          13 4 12 8 -1.</_>
        <_>
          13 4 6 4 2.</_>
        <_>
          19 8 6 4 2.</_></rects>
      <tilted>0</tilted></_>
    <_>
      <rects>
        <_>
          13 8 3 4 -1.</_>
        <_>
          14 8 1 4 3.</_></rects>
      <tilted>0</tilted></_>
    <_>
      <rects>
        <_>
          13 9 3 2 -1.</_>
        <_>
          14 9 1 2 3.</_></rects>
      <tilted>0</tilted></_>
    <_>
      <rects>
        <_>
          13 9 9 2 -1.</_>
        <_>
          16 9 3 2 3.</_></rects>
      <tilted>0</tilted></_>
    <_>
      <rects>
        <_>
          14 4 3 1 -1.</_>
        <_>
          15 4 1 1 3.</_></rects>
      <tilted>0</tilted></_>
    <_>
      <rects>
        <_>
          14 8 10 4 -1.</_>
        <_>
          19 8 5 4 2.</_></rects>
      <tilted>0</tilted></_>
    <_>
      <rects>
        <_>
          14 9 10 3 -1.</_>
        <_>
          19 9 5 3 2.</_></rects>
      <tilted>0</tilted></_>
    <_>
      <rects>
        <_>
          15 3 3 4 -1.</_>
        <_>
          16 3 1 4 3.</_></rects>
      <tilted>0</tilted></_>
    <_>
      <rects>
        <_>
          15 3 18 11 -1.</_>
        <_>
          21 3 6 11 3.</_></rects>
      <tilted>0</tilted></_>
    <_>
      <rects>
        <_>
          15 11 18 3 -1.</_>
        <_>
          15 12 18 1 3.</_></rects>
      <tilted>0</tilted></_>
    <_>
      <rects>
        <_>
          16 2 3 5 -1.</_>
        <_>
          17 2 1 5 3.</_></rects>
      <tilted>0</tilted></_>
    <_>
      <rects>
        <_>
          17 5 3 6 -1.</_>
        <_>
          17 7 3 2 3.</_></rects>
      <tilted>0</tilted></_>
    <_>
      <rects>
        <_>
          17 5 15 1 -1.</_>
        <_>
          22 5 5 1 3.</_></rects>
      <tilted>0</tilted></_>
    <_>
      <rects>
        <_>
          17 6 8 2 -1.</_>
        <_>
          17 6 4 1 2.</_>
        <_>
          21 7 4 1 2.</_></rects>
      <tilted>0</tilted></_>
    <_>
      <rects>
        <_>
          17 11 17 3 -1.</_>
        <_>
          17 12 17 1 3.</_></rects>
      <tilted>0</tilted></_>
    <_>
      <rects>
        <_>
          18 3 2 3 -1.</_>
        <_>
          19 3 1 3 2.</_></rects>
      <tilted>0</tilted></_>
    <_>
      <rects>
        <_>
          18 3 3 4 -1.</_>
        <_>
          19 3 1 4 3.</_></rects>
      <tilted>0</tilted></_>
    <_>
      <rects>
        <_>
          19 2 4 5 -1.</_>
        <_>
          21 2 2 5 2.</_></rects>
      <tilted>0</tilted></_>
    <_>
      <rects>
        <_>
          20 8 15 3 -1.</_>
        <_>
          20 9 15 1 3.</_></rects>
      <tilted>0</tilted></_>
    <_>
      <rects>
        <_>
          20 9 3 3 -1.</_>
        <_>
          21 9 1 3 3.</_></rects>
      <tilted>0</tilted></_>
    <_>
      <rects>
        <_>
          20 10 3 1 -1.</_>
        <_>
          21 10 1 1 3.</_></rects>
      <tilted>0</tilted></_>
    <_>
      <rects>
        <_>
          21 2 12 5 -1.</_>
        <_>
          27 2 6 5 2.</_></rects>
      <tilted>0</tilted></_>
    <_>
      <rects>
        <_>
          23 3 10 4 -1.</_>
        <_>
          28 3 5 4 2.</_></rects>
      <tilted>0</tilted></_>
    <_>
      <rects>
        <_>
          23 9 3 3 -1.</_>
        <_>
          24 9 1 3 3.</_></rects>
      <tilted>0</tilted></_>
    <_>
      <rects>
        <_>
          23 9 6 4 -1.</_>
        <_>
          25 9 2 4 3.</_></rects>
      <tilted>0</tilted></_>
    <_>
      <rects>
        <_>
          23 9 6 3 -1.</_>
        <_>
          23 10 6 1 3.</_></rects>
      <tilted>0</tilted></_>
    <_>
      <rects>
        <_>
          24 4 8 9 -1.</_>
        <_>
          28 4 4 9 2.</_></rects>
      <tilted>0</tilted></_>
    <_>
      <rects>
        <_>
          25 0 10 3 -1.</_>
        <_>
          25 1 10 1 3.</_></rects>
      <tilted>0</tilted></_>
    <_>
      <rects>
        <_>
          25 8 3 5 -1.</_>
        <_>
          26 8 1 5 3.</_></rects>
      <tilted>0</tilted></_>
    <_>
      <rects>
        <_>
          27 1 3 11 -1.</_>
        <_>
          28 1 1 11 3.</_></rects>
      <tilted>0</tilted></_>
    <_>
      <rects>
        <_>
          27 2 6 8 -1.</_>
        <_>
          27 6 6 4 2.</_></rects>
      <tilted>0</tilted></_>
    <_>
      <rects>
        <_>
          27 5 6 6 -1.</_>
        <_>
          27 7 6 2 3.</_></rects>
      <tilted>0</tilted></_>
    <_>
      <rects>
        <_>
          28 0 4 3 -1.</_>
        <_>
          28 1 4 1 3.</_></rects>
      <tilted>0</tilted></_>
    <_>
      <rects>
        <_>
          28 0 7 9 -1.</_>
        <_>
          28 3 7 3 3.</_></rects>
      <tilted>0</tilted></_>
    <_>
      <rects>
        <_>
          28 3 3 6 -1.</_>
        <_>
          29 3 1 6 3.</_></rects>
      <tilted>0</tilted></_>
    <_>
      <rects>
        <_>
          29 3 3 8 -1.</_>
        <_>
          30 3 1 8 3.</_></rects>
      <tilted>0</tilted></_>
    <_>
      <rects>
        <_>
          29 4 3 7 -1.</_>
        <_>
          30 4 1 7 3.</_></rects>
      <tilted>0</tilted></_>
    <_>
      <rects>
        <_>
          29 9 3 3 -1.</_>
        <_>
          30 9 1 3 3.</_></rects>
      <tilted>0</tilted></_>
    <_>
      <rects>
        <_>
          30 9 3 4 -1.</_>
        <_>
          31 9 1 4 3.</_></rects>
      <tilted>0</tilted></_>
    <_>
      <rects>
        <_>
          32 2 3 12 -1.</_>
        <_>
          33 2 1 12 3.</_></rects>
      <tilted>0</tilted></_>
    <_>
      <rects>
        <_>
          32 9 3 2 -1.</_>
        <_>
          33 9 1 2 3.</_></rects>
      <tilted>0</tilted></_>
    <_>
      <rects>
        <_>
          33 1 2 10 -1.</_>
        <_>
          34 1 1 10 2.</_></rects>
      <tilted>0</tilted></_></features></cascade>
</opencv_storage>
